{"InputSize":5,"HiddenSize":50,"OutputSize":1,"InputWeights":[[0.2380809275150092,-0.43986004314253146,-0.10546216111656792,-0.47318049455932853,0.4753032713914368,-0.04526706144423215,-2.301369317615539,-0.23178304661606344,-0.2296870161507103,-0.12776087874963338,0.8755450763189127,-0.7316683670271513,-0.04959638130880961,0.39529507181830037,0.9612500127069418,1.0282453814192005,-0.7084378359522692,-0.32066042979565046,-0.7973016406616646,-0.958990821789014,-0.38328324280080106,-0.5696692515239127,0.5126699027347169,1.8055133280483133,0.37501199707548233,-1.633482068184148,0.6007267461309143,0.9439239936121153,1.405392580503881,0.8452673216726048,-1.0491968052787222,-0.814347946281448,-0.5693598391124377,-0.15923723480647073,-0.4126375573080654,-1.4767336624591931,0.6591515234366838,1.0138940251839195,2.390256104790561,2.904287339410278,0.3338508320965228,-0.3715431688634867,-0.44703556121683263,-1.4287648417338232,-1.7707320208362638,-0.274560465233356,0.33048732893700405,-0.6705143840716763,-0.6950013419649458,-1.5025636837020429],[-0.04658309073884481,-1.4434425456520747,-0.1805262201866479,-1.3092227885313104,-0.43707951949460266,-0.9442437107589636,-1.5349331349310935,-1.7692376344312448,1.592726306758916,-1.831369965810203,0.42513243017373914,-0.006095989157890558,0.9855543145520234,-1.4567811311576448,1.217777429309585,-1.3153988236894794,2.4285642279841158,1.4650640363578833,-0.6038551004897446,0.428668815416257,-0.40095710123761474,-0.7141475252188183,-1.1043874977453831,0.5684998011629477,1.0356738773743435,-1.2315679731212774,1.27974973849628,1.15112503691901,-0.46252610241972103,-0.6476488135300933,1.6782958559609904,0.4533004537671569,0.3081032224922904,0.72611218130115,0.6924374717872164,-1.1806811721123642,-0.17019420464930715,-1.369739126651678,3.058988602071995,-0.07888729639431075,-0.23851379658993555,0.598639785046722,-0.19569260445265108,0.5505255874936286,0.3298553757658188,0.29303841769665695,0.1379783452841749,1.4701386040965825,0.14883968978609236,-0.8362848097876402],[1.9664860035911214,1.2015146130332988,1.1455420946229105,-0.6024764743137501,0.9117295878744289,0.5040466596993574,-0.619400311610133,-0.40612805456038525,1.0168151087624677,-0.046271384747008426,-0.08192901616327877,0.5019446076261502,0.049193223007389514,2.1596021453980985,0.4928026600502536,-0.038896515353575356,-0.9804754633990713,0.1220718929089909,1.1195855836493402,0.4852580779663803,-0.651656543394677,-0.06578894719248674,1.2912761285756025,-0.4239724583025195,0.684582037405975,0.2742688679423233,0.3420298471449522,0.25390713844108403,1.7089572671899544,-0.3411748715808349,-0.04763697548393875,0.3238472452485117,-0.745334944135533,0.9839894750078899,-0.6285154800627655,0.08365475175677184,0.30549523825826697,-1.1737767346063999,3.31798140372382,1.1684090841051997,-1.9429723904447311,-1.3046212944110742,-1.337569308533047,0.6007639368471871,1.364459715020726,-0.07833939410440294,0.4886319478956354,-1.075816445268973,0.9039895358110941,0.13380608748875233],[2.3228105555387013,0.02998080414926174,0.9936290710458577,-2.3310500340211466,-0.31666449439792266,0.306473371988792,2.029073314725512,-0.465336807044328,-0.8422595693935317,-0.9294961314360903,-0.0863299372958265,-0.4888180869141276,1.3936370463546903,0.23190709549248245,1.0058090733879634,1.0333920338477576,-1.6405303547660093,-1.737860683002491,0.9061140784900279,0.3140561776765352,-1.0882677527701006,-1.6685088601248006,-0.5219511344985558,0.1797498840374,1.3932604245944809,-0.4164278626841783,0.023159417816043804,0.2117222873992539,-0.7021427373966882,0.3307616291944977,-0.40370789403693996,-0.14547674617101158,1.3899346916387965,0.4831392371057819,-0.32362080248713576,0.5831879830621601,2.2534024308240195,1.166824101780268,-1.394752892136872,-0.11095197415162761,0.9090516544417948,0.21387268463336034,-0.5207343544223205,-0.5077220136067562,0.08416801834939147,0.4473927522571178,0.8821162316653514,2.5591931126952248,0.20878663312719037,0.29166094610180215],[1.2337608414490124,2.480834349347309,-0.04546433306489969,-0.20259169663268267,-0.6411467861515022,1.7548910801153017,0.9326319236563241,-0.8121284033345834,-1.3122550047079118,0.13216991482064444,-0.13224906288768257,-0.29725782199631834,-1.1438134576608179,-1.1741500969183516,-0.770979194395622,1.8711818978077548,-0.8755292322255723,-1.3681331875702387,0.9380393944526016,1.9829148500303706,-3.0095377253312523,2.3514232980754524,0.14132650872613228,0.052200328208221514,-0.08910113641489836,0.9246432413848946,0.1304779775373885,0.42143487552992753,-1.6267821783937333,0.3375057926071544,0.08655445321160346,-0.22929107576841773,2.2975176460182207,0.741005953932439,-1.4436154589092043,-0.7641781067009394,-0.9172359127759409,0.34092470892611304,0.08426963112456276,1.6778777919805676,-0.2166058825648582,-2.2926453192141265,-0.4859116323632028,-1.4562678512842189,1.2602682365381008,0.5473151812901991,0.06413748702876224,-0.6979037939397748,-1.1168041862786386,-0.24220271770344776]],"HiddenBiases":[0.32368132466993005,0.331086842261407,0.6164240418534679,0.39594980371926985,0.5165805137140798,0.6527863501295595,0.6052769535791692,0.8908475161446,0.0783294918601854,0.8630898797954972,0.012119318311069811,0.16920272584600832,0.9848466456481767,0.41324011257051496,0.5889373353286755,0.5990804036841508,0.8966663023385414,0.17889864273018058,0.661891207801685,0.14211776658378736,0.8900511166810932,0.23997227297943793,0.4205079078322249,0.6715839093618228,0.8859420313637647,0.3729774662240619,0.8518068345897892,0.34765167444091555,0.8733895630655315,0.007420663942988664,0.08108707021958995,0.26149662261862183,0.2868037243278061,0.8861527360106138,0.7683187046420514,0.5125292279958582,0.5850763602911156,0.18020394371423581,0.8913508112106403,0.3242271476045176,0.2407912795444606,0.10696581806309974,0.7720540179118716,0.15675987097834213,0.7603754214593134,0.861533726746654,0.5875048941591879,0.3277688133071977,0.12894347498826156,0.571991036511544],"OutputWeights":[[-0.12970533166081552],[0.11265502594503111],[0.09024305044004827],[0.022930103941949366],[0.0074181269929906824],[0.1360630601594014],[-0.5150578370619225],[0.23079811755067609],[0.15704888659265193],[0.2281819811305788],[0.4021598922712065],[-0.43522545969559134],[0.1559310497286279],[0.10736649921118083],[-0.024502576929726128],[-0.012854115445745324],[-0.5325590080584266],[-0.17930909494841396],[0.13781096068435972],[0.015857765506467933],[-0.21972667595498993],[-0.3873124047961021],[0.18986120633755138],[0.02563098833434598],[-0.0011162098052483517],[-0.10625448022703406],[0.00949294104837622],[-0.04427763611199535],[0.15591519489287867],[0.3170447361942842],[0.18019175891471767],[-0.2618659936063849],[-0.03901580595521368],[-0.00499723445471544],[-0.20832768165406676],[0.15841473934202352],[0.03333826288967325],[-0.003953634605536551],[0.12060157501170174],[-0.11451632039833934],[-0.4484642684445863],[0.11308172166418305],[0.2624198130820502],[-0.008678248443623382],[0.18345203903993498],[0.2128340388789478],[0.07304860486845564],[0.18390111301908524],[-0.3240061638618892],[-0.11266798021863177]],"Activation":0,"Regularization":0.001,"ModelType":"counting","RMSE":0}